svm_type c_svc
kernel_type linear
nr_class 11
total_sv 117
rho -5.161033057072304 -1.2221284920733722 -1.4725738057014202 0.55637198868659499 -1.5810349197073341 -1.4406442337113463 -1.1776507606314373 1.5360222543626649 0.09479784879247892 -1.4083882258616409 -0.49628440453164141 -0.602558535909129 0.14338294523092701 -0.75547897279736898 -0.50758211894967131 -0.78703959198277973 1.0539985800110574 -0.65344319351398061 -0.6769382585669681 -13.132798822771326 1.468067101387077 2.2905883669911025 3.7122166727504009 -4.5750325042117659 1.5540730478994647 0.53711534350231127 -1.0216507452698558 0.14501474598201974 1.5160437708815111 3.4408413236988333 0.68300188617661639 1.2071396332048621 1.3417855624672754 -1.4984581447020753 -0.64879118029460614 -0.29699765156024494 -1.7230142311467989 1.9627929249528357 -0.24715384992917042 -1.729132528257953 -0.38789981324527528 0.052672294483660363 1.2773660092903152 0.99015042504487005 -14.636103909510846 0.41986257767301999 1.485838745675554 0.52254398909501942 -1.6635262578115622 1.2939420047649812 1.2857381584989207 -0.87296014695658952 -3.49928195149579 -1.1726494050610559 -0.22099479570070354
label 5 0 9 4 6 7 1 2 8 10 3
nr_sv 6 5 15 12 8 18 11 13 8 12 9
SV
9.5868065458792423e-05 0 0 0 0 0 0 0 0 0 0:1.49803 1:2 2:3.69752 3:8.68775 4:227.422 5:0 6:1.25 7:-205 8:-626 9:0 10:0 11:807 12:49 13:2 
0 8.0328755559114976e-07 2.7174342397370249e-07 9.1224154156856442e-06 0 1.9899461383381247e-07 0 9.1945729635751857e-06 8.2056738104749468e-05 3.6538321742014447e-07 0:2.28102 1:2 2:7.33876 3:12.2227 4:200.509 5:-0.5 6:2.5 7:-18 8:-308 9:-296 10:0 11:1299 12:269 13:5 
0 2.7091491220475949e-06 3.0644580409374261e-06 3.327446759125953e-06 3.7606465718109829e-06 3.2513322271303281e-06 1.3703617792851507e-06 0 0 3.2640573541002954e-06 0:2.67878 1:2 2:5.90919 3:15.3044 4:225.603 5:-0.392857 6:1.25 7:-29 8:-328 9:-287 10:0 11:1002 12:56 13:3 
0 0 0 0 0 0 0 7.7093710240579594e-05 0 0 0:1.782 1:2 2:8.88605 3:13.369 4:233.305 5:-0.611111 6:1 7:-10 8:-308 9:-69 10:0 11:1005 12:262 13:6 
0 0 0 0 0 0 0 0 8.980568801518268e-05 0 0:1.3288 1:2 2:5.23693 3:8.32046 4:226.209 5:0.28 6:2.33333 7:-18 8:-592 9:-212 10:0 11:1285 12:389 13:4 
0 0 0 0 0 0 4.9678381783763116e-06 0 9.6850907608053474e-05 0 0:1.48274 1:2 2:3.98806 3:9.13342 4:229.034 5:-1.14286 6:2.8 7:-5 8:-666 9:-259 10:0 11:1140 12:106 13:3 
-7.2364178366548311e-05 6.9861187629816646e-07 1.1359572094500605e-06 0 7.1533382136424199e-07 8.612487462431188e-07 2.1533376494412926e-06 0 0 1.28288436244568e-06 0:1.28459 1:1 2:4.0999 3:10.0891 4:303.705 5:-1.38889 6:-0 7:-265 8:-677 9:-2 10:0 11:797 12:150 13:6 
-0 0 0 0 0 0 1.0915505357769108e-06 0 1.2087962308609582e-06 0 0:0.935901 1:1 2:3.96101 3:11.5719 4:329.517 5:-0.76 6:0 7:-141 8:-996 9:0 10:0 11:992 12:215 13:5 
-2.3503887092244109e-05 0 0 0 1.1436945691839557e-06 0 0 0 0 0 0:1.38205 1:1 2:3.78756 3:10.4332 4:228.504 5:1.72727 6:0.7 7:-351 8:-689 9:0 10:0 11:715 12:82 13:4 
-0 8.239005217303955e-07 5.8978497653875634e-07 2.6138051126675795e-06 0 5.3302303837737547e-07 1.729771709258347e-08 7.3537949653587744e-06 1.6404372303394586e-05 5.9570242259745508e-07 0:1.27329 1:1 2:5.35508 3:11.8403 4:267.057 5:-2.28571 6:0.75 7:-245 8:-706 9:0 10:0 11:1067 12:324 13:5 
-0 0 0 5.4435762016931991e-07 0 0 0 1.7702977325903604e-06 0 0 0:1.53315 1:1 2:3.43913 3:9.84647 4:236.587 5:-0.690476 6:0.52381 7:-552 8:-522 9:0 10:0 11:479 12:150 13:5 
-0 -0 0 0 0.00011188710605207579 0 0 0 0 7.016456250336679e-05 0:2.50515 1:1 2:2.08598 3:9.30253 4:142.584 5:-0.0136986 6:0.666667 7:-101 8:-346 9:-1295 10:-253 11:1194 12:171 13:3 
-0 -0 0 0 0 0.00027897280736795179 0 0 0 0 0:3.05822 1:1 2:1.82457 3:9.81015 4:137.048 5:-0.8125 6:-0.285714 7:-16 8:-196 9:-1034 10:-176 11:1021 12:143 13:1 
-0 -0 0.0037744966910835884 0 0 0 4.3410874786678223e-06 0 0 0 0:2.07541 1:1 2:2.07721 3:8.92549 4:146.166 5:-4.06667 6:-0.0909091 7:-7 8:-420 9:-1249 10:-186 11:1258 12:189 13:2 
-0 -0 0 0 0 0 4.0676134954530517e-05 0 0 0 0:2.15237 1:1 2:2.0184 3:9.34645 4:156.194 5:-4.75 6:0.333333 7:-5 8:-374 9:-1122 10:-61 11:1117 12:147 13:2 
-0 -0 0 0 0 0 1.2985191805603821e-05 0 0 0 0:2.15766 1:1 2:2.29269 3:9.26487 4:164.009 5:-0.393939 6:0 7:-186 8:-398 9:-1257 10:-1 11:1077 12:187 13:4 
-0 -0 0 0 2.3706367058610154e-05 0 0 0 0 0 0:2.27888 1:1 2:1.94223 3:8.58109 4:148.578 5:-0.958333 6:1 7:-27 8:-369 9:-1190 10:-122 11:1163 12:152 13:1 
-4.1427937642217725e-07 -1.4534295761630927e-06 0.0010301183891374588 0 0 0 0 0 3.6108992438888987e-06 5.655649530714266e-06 0:2.11602 1:1 2:2.08284 3:8.87636 4:143.785 5:-1.09524 6:0 7:-19 8:-310 9:-1019 10:-217 11:1002 12:172 13:1 
-3.098157301216568e-06 -0 0 0 0 0 0 0 0 0 0:2.9911 1:1 2:1.90853 3:10.3838 4:148.2 5:-0.205882 6:-0 7:-25 8:-167 9:-1008 10:-107 11:983 12:170 13:1 
-0 -0 0 0 0.00015888960549648607 0 0 0 0 0 0:3.719 1:1 2:1.74215 3:10.1117 4:147.963 5:0.262295 6:0.142857 7:-56 8:-189 9:-1037 10:-85 11:985 12:91 13:2 
-0 -0 0 0 0 0.00027597842979104229 0 0 0 0 0:3.23762 1:1 2:1.66318 3:8.78934 4:142.363 5:-1.38095 6:0.714286 7:-12 8:-199 9:-1285 10:-199 11:1273 12:198 13:3 
-0 -0 0.0026855248908799821 0 4.5373379869518688e-05 0 0 0 0 0 0:2.94761 1:1 2:1.96705 3:11.6267 4:263.375 5:1.85714 6:1 7:0 8:-284 9:-1069 10:-135 11:1069 12:78 13:2 
-0 -0 0 0 0 0.00012993737521754822 0 0 0 0 0:4.02981 1:1 2:1.83932 3:13.0745 4:141.594 5:-0.375 6:-0 7:-27 8:-98 9:-1115 10:0 11:1087 12:178 13:2 
-0 -0 0.00037894712932041281 0 0 0 0 0 0 0 0:1.8653 1:1 2:2.49786 3:10.1552 4:180.95 5:-0.916667 6:4 7:-96 8:-347 9:-1452 10:-279 11:1358 12:432 13:3 
-0 -0 0.00035837035486694383 5.5321216488756403e-06 0 0 0 0 0 0 0:2.71142 1:1 2:2.09737 3:11.0879 4:211.629 5:-3.5 6:0.2 7:-23 8:-72 9:-1175 10:-305 11:1194 12:376 13:3 
-0 -6.9082821865469132e-08 0 1.3844899468317141e-05 0 0 0 4.4542130010998979e-06 2.973086160530228e-06 0 0:2.45636 1:1 2:2.24799 3:10.4496 4:202.231 5:-0.724138 6:0.153846 7:-58 8:-145 9:-986 10:-196 11:954 12:267 13:5 
-0 -0 -0 2.1281168353720581e-06 0 2.3398168385316855e-05 0 0 0 0.00013881910023797156 0:2.19977 1:2 2:2.21554 3:11.0006 4:155.422 5:3 6:0.714286 7:0 8:-279 9:-1255 10:-451 11:1255 12:291 13:2 
-0 -0 -0.0067589574630028326 0 4.0710123537636746e-05 5.1477343680298428e-05 0 0 0 0 0:2.25756 1:2 2:2.17381 3:10.8747 4:193.474 5:1 6:-2.5 7:-1 8:-361 9:-1145 10:-190 11:1143 12:146 13:5 
-2.307301388889874e-06 -1.4376752105511913e-06 -0 0 0 0 0 4.5171477806327705e-06 1.8425354268814158e-06 1.5342472722518495e-05 0:1.73399 1:2 2:3.16122 3:13.052 4:239.662 5:-0.166667 6:0 7:-111 8:-365 9:-977 10:-289 11:890 12:212 13:2 
-0 -0 -0 0 6.5541047041880687e-05 0 0 0 0 0 0:1.46585 1:2 2:2.70199 3:11.5396 4:198.69 5:1.85 6:-1 7:-68 8:-881 9:-1438 10:-287 11:1370 12:99 13:0 
-2.645850952832077e-07 -2.8806697543762539e-07 -0 0 0.00016144840316419692 0 8.0017246089042227e-05 0 1.0569032824667207e-06 0 0:1.50308 1:2 2:2.36837 3:10.0217 4:180.211 5:2.66667 6:-0.6 7:-3 8:-615 9:-1057 10:-148 11:1054 12:88 13:3 
-0 -0 -0 0 8.5865103229244385e-05 0 0 0 0 0 0:1.91612 1:2 2:2.40251 3:10.0702 4:219.623 5:2.5 6:1.66667 7:-71 8:-440 9:-1090 10:-230 11:1019 12:129 13:4 
-0 -0 -0 0 0 5.0546125678748082e-06 0 0 0 0 0:2.07575 1:2 2:2.3056 3:10.9228 4:196.379 5:-0.764706 6:-0.333333 7:-7 8:-310 9:-1053 10:-226 11:1047 12:197 13:1 
-0 -0 -0 0 0 0 0 0 0 6.3660241888087831e-05 0:1.5467 1:2 2:2.51588 3:9.67043 4:208.775 5:1.31579 6:1 7:-8 8:-575 9:-1213 10:-519 11:1204 12:208 13:0 
-0 -0 -0 0 0 0 0 0 3.8759424395268883e-06 0 0:1.77345 1:2 2:2.42066 3:10.4286 4:180.571 5:5 6:-0.047619 7:0 8:-358 9:-1025 10:-289 11:1025 12:220 13:1 
-0 -0 -0 1.2610626828991371e-05 0 0 0 2.8739877153686063e-07 0 0 0:1.78429 1:2 2:2.43992 3:10.4032 4:175.768 5:0 6:0.444444 7:-14 8:-299 9:-1005 10:-387 11:990 12:263 13:0 
-7.6431498073804612e-07 -0 -0 0 0 0 0 0 0 0 0:2.00048 1:2 2:2.39056 3:11.219 4:225.241 5:1 6:-0.214286 7:-5 8:-394 9:-1022 10:-267 11:1028 12:123 13:4 
-0 -0 -0.0014684999922855511 0 -0 3.3813569699456178e-05 0 0 0 0 0:2.12304 1:2 2:2.62308 3:14.7011 4:205.646 5:-0 6:0 7:0 8:-291 9:-1264 10:-174 11:1265 12:304 13:1 
-3.898388203537109e-06 -0 -0 -0 0 0 1.838302660825394e-06 0 1.2884881056437371e-05 0 0:2.07112 1:1 2:4.59654 3:9.15319 4:153.322 5:-2.33333 6:-29 7:-6 8:-254 9:-585 10:-368 11:1285 12:369 13:3 
-0 -0 -0 -0 0 3.6353280042089716e-06 0 0 0 0 0:1.97486 1:1 2:2.3053 3:6.34367 4:137.844 5:-4 6:-8.5 7:-1 8:0 9:-855 10:-476 11:1255 12:636 13:2 
-0 -0 -1.3527098566078645e-06 -0 1.4308765504628095e-06 0 6.6397826664712374e-06 0 0 0 0:3.29205 1:1 2:2.73587 3:8.98071 4:141.442 5:16 6:-2.57143 7:0 8:-88 9:-715 10:-129 11:1187 12:272 13:1 
-0 -0 -9.5840589124289124e-06 -4.4798686342016434e-06 4.0555640392198782e-06 9.7008538246550995e-06 0 0 0 0 0:3.37124 1:1 2:2.53681 3:9.62083 4:137.902 5:-4.5 6:-23 7:-1 8:-36 9:-681 10:-191 11:1046 12:274 13:2 
-0 -0 -8.4402523481559996e-06 -1.0258875030161784e-05 2.8033061996323237e-06 1.1323451961875043e-05 0 0 0 1.7836056905349214e-05 0:2.66068 1:1 2:3.03703 3:11.802 4:191.816 5:0.179487 6:0.545455 7:-63 8:-92 9:-892 10:-501 11:1269 12:409 13:4 
-0 -0 -0 -0 0 0 0 0 1.3227291854663676e-05 0 0:2.63664 1:1 2:4.2741 3:8.80466 4:125.395 5:4 6:-1.27778 7:0 8:0 9:-485 10:-123 11:1170 12:444 13:1 
-8.5514739712744903e-06 -0 -0 -0 0 0 0 1.0670154668669336e-05 4.6849929828988199e-06 0 0:3.54177 1:1 2:4.22528 3:11.4497 4:133.379 5:0.425 6:-2.07692 7:-28 8:-10 9:-472 10:-114 11:1041 12:292 13:1 
-0 -3.1581627328368995e-06 -0 -0 0 0 0 3.1674649241575481e-05 6.6256766875159063e-06 0 0:1.79822 1:1 2:5.30147 3:7.59335 4:142.602 5:1.42424 6:-1.18182 7:-94 8:-206 9:-498 10:-316 11:983 12:393 13:0 
-0 -1.8590283905481974e-06 -0 -0 -0 0 0 1.7753909208384247e-07 0 0 0:1.78153 1:1 2:1.76099 3:4.59382 4:119.605 5:-2.2 6:-0.5 7:-205 8:-557 9:-1002 10:-108 11:797 12:5 13:1 
-0 -0 -0 -0 -6.2199135836336825e-06 0 0 0 0 0 0:3.18265 1:1 2:1.53324 3:6.25339 4:127.315 5:-4.9 6:-1.25 7:-90 8:-277 9:-1045 10:-244 11:955 12:51 13:2 
-0 -0 -0 -0 -0 0.00038362405078159318 0 0 0 0 0:3.93806 1:1 2:1.33513 3:6.50529 4:123.224 5:-11.5 6:1.66667 7:-59 8:-271 9:-1165 10:-86 11:1106 12:24 13:3 
-0 -0 -0 -0 -0 0 0 4.0529014592299009e-06 1.6391573387484156e-06 0 0:2.64547 1:1 2:1.56832 3:5.71023 4:123.069 5:-1.73333 6:0.666667 7:-62 8:-351 9:-1010 10:-348 11:950 12:31 13:4 
-0 -0 -0.00025904344252828098 -0 -0 0 0 0 0 0 0:3.21828 1:1 2:1.4354 3:6.01781 4:141.173 5:-5.88889 6:-0.1 7:-68 8:-303 9:-1131 10:-102 11:1066 12:49 13:1 
-0 -0 -0 -0 -0 0 0 0 0 0.00062454980775418446 0:2.55025 1:1 2:1.56497 3:5.42494 4:186.097 5:-0.151515 6:-3 7:-84 8:-405 9:-1032 10:-227 11:951 12:1 13:2 
-2.3743941295454281e-06 -0 -0 -0 -0 0 0 0 0 0 0:3.19569 1:1 2:1.4542 3:6.0213 4:176.18 5:-1.55556 6:-1 7:-87 8:-290 9:-1009 10:-47 11:921 12:25 13:2 
-0 -0 -8.081301594840968e-05 -0 -0 0 0 0 0 0 0:3.38986 1:1 2:1.41174 3:5.91352 4:122.517 5:-6.33333 6:2 7:-77 8:-266 9:-1159 10:-342 11:1082 12:75 13:3 
-0 -0 -0 -0 -0 0 0 0 0 0.00046702591170483509 0:2.17457 1:1 2:1.74877 3:5.33265 4:121.775 5:0.375 6:-1 7:-124 8:-547 9:-1191 10:-532 11:1067 12:1 13:2 
-0 -0 -0 -0 -0 0 0 0 0 0.00043203043574219728 0:2.4328 1:1 2:1.59002 3:5.30019 4:126.29 5:-0.444444 6:1 7:-80 8:-423 9:-1108 10:-455 11:1028 12:32 13:3 
-0 -0 -0 -0 -1.5699785691989685e-06 0 0 0 0 0 0:2.65299 1:1 2:1.39061 3:5.0135 4:111.972 5:-0.909091 6:-2 7:-13 8:-347 9:-1077 10:-406 11:1064 12:59 13:1 
-0 -0 -0 -0 -4.9985463648236097e-07 0 0 0 0 0 0:3.91127 1:1 2:1.30663 3:6.46651 4:108.053 5:-10.5 6:0.625 7:-18 8:-267 9:-1087 10:-221 11:1069 12:10 13:2 
-0 -0 -0 -0.00019404271754902601 -0 0 0 0 0 0 0:1.90149 1:1 2:1.65707 3:4.86102 4:173.664 5:-2.33333 6:-0.5 7:-66 8:-547 9:-1103 10:-289 11:1040 12:35 13:3 
-0 -0 -0 -0 -0 0 0 0 0 7.5550427229239718e-05 0:2.09589 1:1 2:1.52881 3:4.87791 4:177.915 5:-10 6:1 7:-48 8:-633 9:-1452 10:-269 11:1405 12:60 13:1 
-0 -0 -0 -0.00015952195942393272 -0 0 0 0 0 0 0:1.8552 1:1 2:1.47468 3:4.60393 4:173.117 5:1.85714 6:0 7:-27 8:-618 9:-1225 10:-78 11:1202 12:45 13:5 
-0 -0 -0 -0 -0 0 5.8449726356266532e-05 0 0 0 0:1.74684 1:1 2:1.5162 3:4.53558 4:151.097 5:-2.77778 6:0 7:-58 8:-596 9:-1106 10:-63 11:1047 12:36 13:4 
-0 -0 -0 -0 -0 0 0.00011153757371102189 0 0 0 0:1.8109 1:1 2:1.44567 3:4.41652 4:159.066 5:5.6 6:-1 7:-72 8:-696 9:-1316 10:-3 11:1246 12:31 13:3 
-1.3862524422655544e-06 -0 -0 -0 -0 0 3.6927537747930685e-05 2.9549802006513981e-08 4.4832749608179108e-06 0 0:2.04615 1:1 2:1.40562 3:4.63618 4:172.884 5:5.75 6:-0.333333 7:0 8:-468 9:-1008 10:-81 11:1008 12:24 13:5 
-0 -0 -0 -0 -0 -5.156639104277779e-05 0 0 0 0 0:14.2667 1:1 2:1.3419 3:18.9369 4:80.6121 5:0.0689655 6:-0.285714 7:-185 8:-86 9:-1284 10:0 11:1099 12:3 13:1 
-0 -0 -0 -0 -6.32355906800252e-06 -0 0 0 0 0 0:13.7745 1:1 2:1.12173 3:15.5679 4:92.8164 5:0.142857 6:0.214286 7:-8 8:-69 9:-1029 10:-12 11:1070 12:9 13:2 
-0 -0 -0 -0 -0 -4.0626361557234273e-05 0 0 0 0 0:20.719 1:1 2:1.11321 3:23.4422 4:84.5926 5:0.868421 6:-0.111111 7:-47 8:-45 9:-1056 10:-46 11:1009 12:6 13:0 
-0 -0 -0 -0 -0 -4.2106893515460744e-05 0 0 0 1.3885409098787807e-05 0:2.69711 1:1 2:1.08877 3:3.34284 4:65.244 5:0.627907 6:0.313725 7:-43 8:-30 9:-1151 10:-427 11:1108 12:397 13:0 
-5.0071008418201747e-08 -2.9295955433237879e-08 -0.000151055090942346 -4.9674312730471137e-05 -1.8336074722736593e-05 -0 1.6624475745840317e-06 1.9115818978383148e-06 2.35135612051611e-06 0 0:2.05553 1:1 2:1.00438 3:2.56131 4:59.1734 5:1 6:0.333333 7:0 8:0 9:-1018 10:-495 11:1017 12:494 13:0 
-0 -0 -0.000222384697265693 -6.4069381602475028e-05 -0 -5.5542793952806302e-05 1.9148628658922625e-05 0 0 1.2975797481569805e-05 0:2.5107 1:1 2:1.03763 3:3.0312 4:65.2707 5:-0.368421 6:-0.40625 7:-21 8:-526 9:-1349 10:0 11:1328 12:11 13:0 
-0 -1.3649758291872565e-06 -0 -0 -0 -0 0 0 3.2673228379087488e-06 0 0:3.92541 1:1 2:1.01131 3:4.26544 4:63.4408 5:3.5 6:-2 7:0 8:-258 9:-1035 10:0 11:1035 12:5 13:1 
-3.4002558325459387e-06 -0 -0 -0 -0 -0 0 1.846358176270945e-06 0 0 0:4.82334 1:1 2:1.01134 3:5.12461 4:63.6134 5:-1 6:-0.857143 7:-1 8:-209 9:-1019 10:0 11:1017 12:2 13:0 
-0 -0 -0 -0 -0 -0.0001454015193595504 1.4294914590506984e-05 0 0 0 0:2.89872 1:1 2:1.04296 3:3.39967 4:59.3243 5:-0.533333 6:-0.461538 7:-19 8:-379 9:-1130 10:0 11:1111 12:11 13:0 
-0 -0 -0.00031144882416850295 -0 -0 -0 0 0 0 0 0:9.65463 1:1 2:1.02271 3:10.1062 4:120.065 5:-1.33333 6:0.333333 7:-1 8:0 9:-1067 10:-97 11:1067 12:110 13:1 
-0 -0 -0 -0 -0 -4.8380091353763625e-05 0 0 0 0 0:6.49604 1:1 2:1.0264 3:6.89304 4:104.245 5:-1.5 6:-3 7:-6 8:-146 9:-1024 10:0 11:1018 12:11 13:0 
-0 -0 -1.5881056320813041e-06 -8.6559746840993107e-07 -0 -0 -0 0 0 0 0:1.40979 1:1 2:2.25594 3:7.72803 4:173.16 5:0.454545 6:-0.333333 7:-52 8:-561 9:-935 10:0 11:956 12:154 13:3 
-0 -0 -0 -0 -0 -5.3557830821170895e-06 -0 0 0 0 0:1.33356 1:1 2:2.26192 3:7.50713 4:143.385 5:1.27273 6:7 7:-288 8:-1409 9:-1801 10:0 11:1683 12:69 13:0 
-5.079589490692802e-06 -3.2621859023107872e-06 -0 -0 -0 -0 -0 3.2471507552888054e-06 0 0 0:1.19216 1:1 2:2.55959 3:7.39916 4:236.739 5:0.565217 6:3 7:-101 8:-739 9:-765 10:-24 11:901 12:101 13:4 
-0 -0 -0 -4.9313506830400933e-06 -0 -0 -0 0 0 0 0:1.1144 1:1 2:2.01885 3:7.1504 4:178.091 5:-7 6:2.1875 7:-16 8:-934 9:-1049 10:0 11:1094 12:62 13:5 
-1.2586104669686611e-06 -0 -0 -0 -8.0458565164063282e-06 -0 -0 1.6561020592991007e-06 1.4531506141177803e-05 0 0:1.30028 1:1 2:2.89595 3:8.15011 4:138.221 5:-0.666667 6:7 7:-7 8:-527 9:-867 10:0 11:1159 12:370 13:1 
-0 -0 -0 -0 -0 -0 -0 0 0 5.2778809532588259e-06 0:1.78305 1:1 2:2.26473 3:8.02522 4:226.161 5:-0.88 6:3.42857 7:-95 8:-574 9:-1144 10:0 11:1181 12:141 13:3 
-0 -0 -0 -1.5002710661693465e-05 -0 -0 -0 0 0 0 0:1.61227 1:1 2:1.95494 3:6.73169 4:194.957 5:-1.85714 6:4.33333 7:-53 8:-650 9:-951 10:0 11:1006 12:7 13:3 
-0 -0 -4.2079178269371055e-05 -0 -0 -0 -0 0 0 8.5023354010951056e-06 0:1.75314 1:1 2:2.14746 3:7.70908 4:207.241 5:-2.09091 6:-14 7:-66 8:-544 9:-1114 10:0 11:1143 12:145 13:3 
-0 -0 -0 -0 -0 -0 -1.3764342749738653e-05 0 0 0 0:1.80432 1:1 2:2.20192 3:8.46159 4:194.683 5:-1.4 6:-3.75 7:-68 8:-639 9:-1154 10:0 11:1213 12:71 13:4 
-0 -0 -0 -3.5865604870414108e-05 -0 -0 -0 0 0 0 0:1.5028 1:1 2:2.00974 3:6.66521 4:176.536 5:-1.25 6:0 7:-14 8:-557 9:-989 10:0 11:1058 12:156 13:3 
-0 -0 -0 -2.3351982405484643e-05 -0 -0.00020155905473310189 -0 0 0 0 0:1.74693 1:1 2:1.91185 3:6.44451 4:191.986 5:-1.06667 6:-2.5 7:-60 8:-632 9:-1125 10:0 11:1173 12:73 13:2 
-0 -0 -0 -0 -4.3222881089030196e-07 -0 -0 0 0 0 0:1.77615 1:1 2:2.13044 3:7.71664 4:201.426 5:-0.888889 6:2.25 7:-57 8:-543 9:-873 10:0 11:944 12:20 13:3 
-0 -0 -1.4335130337349799e-05 -0 -0 -0 -2.1341648074274985e-05 0 0 0 0:1.87994 1:1 2:2.07409 3:7.35748 4:212.494 5:-1.11111 6:-6 7:-16 8:-511 9:-1129 10:0 11:1267 12:172 13:2 
-0 -5.8667483864843869e-06 -0 -0 -0 -0 -0 -0 0 0 0:2.03815 1:1 2:15.8565 3:15.8457 4:176.592 5:0.608696 6:0.416667 7:-262 8:-173 9:-64 10:-124 11:895 12:395 13:2 
-0 -0 -3.4793955463424476e-06 -2.7745254599472598e-06 -3.045142235029045e-05 -1.1208564474839044e-06 -2.8487376136015576e-06 -1.8319317102836892e-06 0 3.1755120946748612e-06 0:2.90691 1:1 2:26.3624 3:16.7704 4:171.008 5:0.05 6:0.478261 7:-211 8:0 9:-288 10:-51 11:798 12:346 13:2 
-6.4741619032122866e-05 -1.3629740891976797e-06 -0 -0 -0 -0 -0 -0 5.3239641876723495e-05 0 0:2.06692 1:1 2:18.834 3:13.7144 4:171.428 5:-0.8 6:0.407407 7:-47 8:-141 9:0 10:0 11:1044 12:386 13:3 
-0 -1.894370222267068e-06 -0 -0 -0 -0 -0 -0 0 0 0:1.45092 1:1 2:20.9546 3:14.8897 4:214.252 5:-3.5 6:-1.28571 7:-120 8:-967 9:-332 10:-921 11:1299 12:11 13:4 
-0 -0 -0 -0 -0 -0 -0 -0 2.669438121774669e-05 0 0:1.95122 1:1 2:16.5404 3:13.2194 4:268.673 5:17 6:-3 7:-61 8:-521 9:-235 10:-490 11:1058 12:52 13:5 
-0 -0 -9.748174547574505e-07 -1.2166198968539296e-06 -8.1382248037488082e-06 -5.0309862479294384e-07 -9.0920246050770101e-07 -8.9866344685689922e-07 1.0956192847588455e-05 2.2025771716910419e-06 0:1.45953 1:1 2:12.9058 3:11.4658 4:215.337 5:10 6:-5 7:-164 8:-1086 9:-538 10:-984 11:1621 12:137 13:3 
-2.154666417203189e-05 -0 -0 -8.1340119536844378e-07 -0 -2.6360352810434098e-06 -0 -2.1726576574473177e-06 7.623174341638872e-05 3.0486221780259663e-06 0:2.21467 1:1 2:10.1633 3:12.8428 4:206.633 5:-2.75 6:-0.75 7:-85 8:-478 9:-336 10:-413 11:1012 12:17 13:4 
-0 -0 -0 -0 -3.7551567562055727e-06 -0 -0 -0 4.5451001281985039e-05 0 0:2.91027 1:1 2:19.8069 3:16.7863 4:199.256 5:-0.894737 6:0 7:-15 8:0 9:-191 10:-18 11:1444 12:501 13:3 
-0 -0 -0 -0 -0 -0 -0 -0 -2.0839449866347364e-06 0 0:2.33162 1:2 2:9.62429 3:19.7615 4:176.104 5:2.66667 6:-6.33333 7:0 8:-382 9:-255 10:-190 11:1057 12:71 13:5 
-0.00013440777161990872 -0 -0 -0 -0 -0 -0 -0 -0 0 0:1.8648 1:2 2:6.63649 3:16.9765 4:173.932 5:0.384615 6:-0.636364 7:-11 8:-475 9:-320 10:-64 11:1119 12:131 13:3 
-0 -0 -1.1321856738597605e-07 -0 -0 -0 -1.0192988777323807e-06 -0 -0 4.281902183468081e-06 0:2.11567 1:2 2:6.62975 3:16.1657 4:205.998 5:1.8 6:-0 7:0 8:-569 9:-465 10:-365 11:1219 12:6 13:4 
-0 -0 -1.5570290885695313e-06 -3.0825106871886478e-06 -0 -3.7964742071666255e-06 -0 -3.7494745775320098e-06 -0 1.6651222335783169e-06 0:1.71744 1:2 2:6.34999 3:16.4272 4:210.981 5:-5 6:-0.25 7:-1 8:-608 9:-455 10:-308 11:1114 12:42 13:2 
-5.6573191461274957e-05 -0 -0 -0 -0 -0 -0 -0 -0 0 0:1.56018 1:2 2:6.45141 3:14.1434 4:183.523 5:-1 6:-0.0636943 7:-1 8:-560 9:-403 10:-30 11:1425 12:354 13:2 
-0 -0 -0 -0 -1.8795687779484446e-05 -0 -0 -0 -7.2445801447583214e-05 0 0:1.92869 1:2 2:9.27779 3:17.3152 4:184.765 5:0.294118 6:-2.30769 7:-5 8:-271 9:-351 10:-120 11:1164 12:335 13:1 
-0 -0 -4.9137377484636194e-06 -3.6928704616863772e-06 -1.8627154802031321e-05 -2.3259580923997012e-06 -4.5993800806924792e-06 -8.6457850183485532e-06 -0 2.540012893993772e-06 0:1.56198 1:2 2:6.34739 3:15.4931 4:198.685 5:0.565217 6:-1 7:-11 8:-295 9:-562 10:-71 11:1185 12:471 13:2 
-0 -0 -0 -0 -0 -0 -0 -2.136246545297238e-06 -0 0 0:1.47925 1:2 2:6.53291 3:14.6371 4:161.109 5:1.66667 6:-0.583333 7:-3 8:-524 9:-799 10:-17 11:1957 12:801 13:0 
-1.508014056775627e-05 -0 -0 -0 -0 -0 -0 -0 -0 0 0:1.37434 1:2 2:10.2335 3:17.6029 4:169.208 5:9 6:-3 7:0 8:-308 9:-247 10:-42 11:1039 12:447 13:0 
-6.2652230079046062e-05 -7.5649779184501346e-06 -0 -0 -0 -0 -0 -0 -0 0 0:1.18254 1:2 2:9.79617 3:21.3949 4:255.345 5:-2 6:-1.4 7:-12 8:-709 9:-121 10:-140 11:1322 12:419 13:6 
-0 -0 -0 -0 -0 -0 -0 -0 -0.00013804321420621463 0 0:1.94303 1:2 2:18.0714 3:27.0093 4:265.307 5:4.25 6:1.57143 7:0 8:-426 9:-175 10:-266 11:1148 12:165 13:5 
-0 -1.0048190615805412e-05 -0 -0 -0 -0 -0 -0 -0 0 0:1.24016 1:2 2:8.73948 3:18.4622 4:272.208 5:-0.904762 6:-5 7:-17 8:-625 9:-171 10:-197 11:1012 12:204 13:6 
-0 -0 -0 -3.2278271652446026e-05 -0 -0 -0 -0 -0 -0 0:2.01896 1:1 2:1.94584 3:7.47774 4:179.212 5:-1.76923 6:-3 7:-7 8:-388 9:-1182 10:-597 11:1199 12:209 13:4 
-0 -0 -6.1701913525281541e-05 -6.4141807264868296e-05 -0 -0.00026873000701717033 -1.8860040243902441e-05 -1.3236557878567627e-05 -0 -0 0:2.8097 1:1 2:2.02627 3:9.21608 4:189.763 5:-0.333333 6:-2.71429 7:-135 8:-423 9:-1250 10:-304 11:1119 12:23 13:5 
-0 -0 -0 -0 -0 -0.0012760579603998668 -0 -0 -0 -0 0:2.52334 1:1 2:1.98429 3:8.5598 4:177.997 5:-0.4 6:-2.27273 7:-65 8:-428 9:-1085 10:-400 11:1033 12:7 13:6 
-0 -0 -0 -0 -0 -0 -0 -1.4994669704639395e-07 -0 -0 0:2.12404 1:1 2:2.56554 3:8.87299 4:185.362 5:0.16129 6:-1.17857 7:-109 8:-521 9:-985 10:-420 11:998 12:0 13:5 
-0 -0 -1.4118298508799521e-05 -9.249607646483955e-05 -9.2648374485368792e-06 -0 -7.0585676871428791e-06 -0 -0 -0 0:2.08867 1:1 2:1.90312 3:6.5423 4:176.351 5:1.75 6:-1.57895 7:-50 8:-262 9:-1287 10:-671 11:1351 12:409 13:5 
-3.6294405715204393e-06 -1.6983800442510065e-06 -0 -0 -8.5712194568123296e-06 -0 -0 -0 -8.4267114443918668e-06 -8.4870373110401677e-06 0:2.12798 1:1 2:2.94385 3:8.8804 4:211.359 5:-0.785714 6:-0.416667 7:-93 8:-364 9:-823 10:-502 11:976 12:138 13:6 
-0 -1.8020674079212835e-07 -0 -0 -0 -5.4368615013418304e-05 -0 -1.6966601455602581e-07 -0 -0 0:0.944304 1:2 2:4.49649 3:9.37452 4:275.263 5:-7.75 6:-0.764706 7:-697 8:-1296 9:-1172 10:-514 11:608 12:86 13:6 
-0 -0 -0 -2.8905659466423878e-05 -0 -0 -0 -2.2404576418388843e-07 -0 -0 0:2.7 1:1 2:1.88409 3:9.04225 4:219.698 5:3 6:-2.66667 7:-24 8:-370 9:-1014 10:-371 11:994 12:6 13:4 
-0 -0 -0 -0 -0 -0 -9.4259864931228808e-07 -0 -0 -0 0:2.8153 1:1 2:1.86127 3:9.1331 4:222.261 5:-1 6:-3.4 7:-32 8:-333 9:-1063 10:-379 11:1034 12:46 13:5 
