svm_type c_svc
kernel_type linear
nr_class 9
total_sv 192
rho -0.79879572361171258 9.1373452203192826 -1.5089650474290037 -0.81331921414323105 -0.52809331938074355 2.7271357624282726 -0.61870895644838708 -0.74981977781640619 2.2551363595686165 40.470013414411952 -1.4919583604121278 21.694003551997337 12.127792499596277 -45.041359476279268 -23.65483778969389 -3.3546455571814895 -3.2957052717386666 -7.7291010330652794 3.4515379537773527 -2.2136450254836806 -2.109182971991669 -7.6034087457419428 4.2090183249621509 -6.8175333601427015 -11.659930650732871 -4.0194066479042014 23.657174461648413 23.147440116677632 14.148556945841374 -0.66155301058935079 3.3562496892668356 -4.9346221906659977 -5.8057819214742281 -68.834496988729043 -5.0551755091049388 -124.87332708917377
label 0 1 8 2 3 6 7 9 4
nr_sv 14 19 16 8 54 7 50 22 2
SV
0 0.71811841696683176 0 0 0 0 0 0 0:1.1526 1:2 2:3.11062 3:6.56712 4:128.715 5:0.22 6:1.24 7:-369.561 8:-672.51 9:0 10:0 11:630.439 12:195.092 13:3 
0 0.12663845282231095 0 0 0 0 0 0 0:0.715625 1:2 2:3.54414 3:9.17686 4:119.154 5:0 6:2.40741 7:-119.727 8:-713.086 9:0 10:0 11:595.898 12:286.914 13:3 
0 0.036292088434293775 0 0 0 0 0 0 0:0.690104 1:2 2:4.83057 3:11.2637 4:111.176 5:0.0869565 6:1.58974 7:-41.1784 8:-577.148 9:-45.2474 10:0 11:648.926 12:422.852 13:5 
0 0.12019929885378358 0 0 0 0 0 0 0:0.715625 1:2 2:3.54414 3:9.17686 4:119.154 5:0 6:2.40741 7:-119.727 8:-713.086 9:0 10:0 11:595.898 12:286.914 13:3 
0 0.66493036029592434 0 0 7.1783822467039999e-07 0 0 1.8144268012747925e-07 0:0.690104 1:2 2:4.83057 3:11.2637 4:111.176 5:0.0869565 6:1.58974 7:-41.1784 8:-577.148 9:-45.2474 10:0 11:648.926 12:422.852 13:5 
1.9234839147042109e-07 0 2.7516783157621702e-09 1.2391345287179301e-06 0 0 1.95099353855607e-06 0 0:1.1089 1:1 2:4.14416 3:11.2062 4:89.743 5:0.4 6:1.33333 7:-536.721 8:-695.132 9:-148.164 10:-33.7319 11:463.279 12:206.661 13:5 
0 0 0 0 0 4.2197930149434583e-05 0 0 0:1.73803 1:1 2:3.67253 3:10.6406 4:114.48 5:-1.51515 6:0.671053 7:-479.203 8:-473.586 9:0 10:0 11:520.797 12:101.779 13:4 
0 0.089666950480288554 0 0 0 0 0 0 0:2.06457 1:1 2:2.58956 3:8.29522 4:115.653 5:-1.15385 6:0.481481 7:-665.281 8:-395.685 9:0 10:0 11:334.719 12:88.6778 13:7 
1.7054919589298042e-06 0.51102956976936931 0 1.2874021723013351e-06 0 0 0 8.0564897028418584e-07 0:1.03958 1:2 2:4.25844 3:8.08623 4:128.602 5:0.2 6:-2 7:-102.204 8:-652.639 9:-33.4001 10:-1.33601 11:897.796 12:309.285 13:5 
0 0 8.3279758836308833e-06 0 0 0 0 0 0:0.935901 1:2 2:3.96101 3:11.5719 4:111.693 5:-0.76 6:0 7:-116.919 8:-822.558 9:0 10:0 11:818.982 12:177.442 13:6 
0 0 0 0 3.8973214984066442e-06 1.7208810195038658e-05 2.0792858317872258e-07 6.34342214358209e-07 0:1.27329 1:2 2:5.35508 3:11.8403 4:116.362 5:-2.28571 6:0.75 7:-186.69 8:-537.973 9:0 10:0 11:813.31 12:247.396 13:6 
0 1 0 0 0 0 0 0 0:1.15821 1:2 2:3.2348 3:6.60589 4:146.201 5:-1 6:-0.306748 7:-298.693 8:-724.183 9:0 10:-49.0196 11:701.307 12:139.216 13:3 
0 0.40707785451773004 0 0 0 0 0 0 0:1.26179 1:2 2:4.88483 3:11.9029 4:114.576 5:-1.0625 6:7 7:-254.448 8:-579.359 9:-1.06762 10:-3.91459 11:745.552 12:213.167 13:4 
0 0.088746499190169637 0 0 0 0 0 0 0:1.33647 1:2 2:4.73618 3:10.6454 4:119.984 5:20 6:0.934375 7:-270.709 8:-530.861 9:0 10:0 11:729.291 12:217.38 13:4 
-0 0 0 0 0 0.0010476827019376175 0 0 0:2.69711 1:2 2:1.08877 3:3.34284 4:161.085 5:0.627907 6:0.313725 7:-37.3372 8:-26.0492 9:-1000 10:-370.767 11:962.663 12:344.718 13:2 
-0 0 0 0 0 0 0 0.00019302200458432117 0:2.05553 1:2 2:1.00438 3:2.56131 4:172.299 5:1 6:0.333333 7:-0.491159 8:-0.491159 9:-1000 10:-486.493 11:999.509 12:486.002 13:0 
-0 0 0 0 0 0 0 0.00035532861491453072 0:3.16541 1:2 2:1.08787 3:3.92813 4:155.246 5:-1.66667 6:-5.5 7:-15.4394 8:-281.473 9:-1000 10:0 11:984.561 12:34.4418 13:0 
-0 0 0 0 0 0 0 4.8557652266507207e-05 0:15.105 1:2 2:1.02051 3:15.7236 4:170.725 5:-11 6:-0.285714 7:-0.302297 8:-11.4873 9:-1000 10:0 11:999.698 12:54.7158 13:1 
-0 0 0 0 0 0 0.0019829512117449026 0 0:2.69711 1:2 2:1.08877 3:3.34284 4:161.085 5:0.627907 6:0.313725 7:-37.3372 8:-26.0492 9:-1000 10:-370.767 11:962.663 12:344.718 13:2 
-0 0 0 0 0 0 0 3.1168553313040517e-05 0:2.05553 1:2 2:1.00438 3:2.56131 4:172.299 5:1 6:0.333333 7:-0.491159 8:-0.491159 9:-1000 10:-486.493 11:999.509 12:486.002 13:0 
-0 0 0 0 0 0 0.00044642188065122204 0.00017583420364759592 0:3.16541 1:2 2:1.08787 3:3.92813 4:155.246 5:-1.66667 6:-5.5 7:-15.4394 8:-281.473 9:-1000 10:0 11:984.561 12:34.4418 13:0 
-3.2754982589159021e-07 3.1399324191649679e-06 2.7054459917484324e-05 0 0.00034210417958118209 0 0 4.1602281017862388e-05 0:2.92157 1:2 2:1.18162 3:3.84991 4:143.063 5:0.235294 6:-0.230769 7:-8.72483 8:-2.90828 9:-919.016 10:-342.282 11:991.275 12:339.374 13:1 
-0 0 0 0 0 0 0.0024427448539680249 0 0:3.74251 1:2 2:1.03936 3:4.17755 4:148.704 5:1 6:0 7:-9.6 8:-8 9:-993.067 10:-265.067 11:990.4 12:259.2 13:2 
-0 0 0 0.00074553193489394602 0 0.041327490619699446 0.0067387976097268059 0 0:5.38247 1:2 2:1.1819 3:7.27006 4:128.559 5:0.5 6:0 7:-1.48038 8:-120.651 9:-982.976 10:-180.607 11:998.52 12:65.1369 13:1 
-0 0 0 0 0 0 0.0011568285809277945 0 0:55.8 1:2 2:1.06228 3:59.9615 4:143.799 5:0.333333 6:0.5 7:-21.5054 8:-8.96057 9:-997.312 10:0 11:978.495 12:8.96057 13:2 
-0 0 0 0 0 0.00014127849123394073 0 0 0:2.69711 1:2 2:1.08877 3:3.34284 4:161.085 5:0.627907 6:0.313725 7:-37.3372 8:-26.0492 9:-1000 10:-370.767 11:962.663 12:344.718 13:2 
-0 0 4.798983312054879e-06 2.6448155374733331e-05 0 0 0 0 0:14.2667 1:2 2:1.3419 3:18.9369 4:164.338 5:0.0689655 6:-0.285714 7:-144.081 8:-67.3676 9:-1000 10:0 11:855.919 12:2.72586 13:3 
-0 0 0 0 0 0 0 0.0010364321967763943 0:15.105 1:2 2:1.02051 3:15.7236 4:170.725 5:-11 6:-0.285714 7:-0.302297 8:-11.4873 9:-1000 10:0 11:999.698 12:54.7158 13:1 
-0 0 1.3340440758482849e-05 0 0 0 0 0 0:13.7745 1:2 2:1.12173 3:15.5679 4:144.021 5:0.142857 6:0.214286 7:-8.03213 8:-64.257 9:-954.279 10:-11.1214 11:991.968 12:8.34106 13:4 
-0 0 0 0 0 0.0062138686593008223 0.00085787196261698402 0 0:2.69711 1:2 2:1.08877 3:3.34284 4:161.085 5:0.627907 6:0.313725 7:-37.3372 8:-26.0492 9:-1000 10:-370.767 11:962.663 12:344.718 13:2 
-0 0 0 0 0.0001790892440354761 0 0 0.0011260102648430507 0:2.05553 1:2 2:1.00438 3:2.56131 4:172.299 5:1 6:0.333333 7:-0.491159 8:-0.491159 9:-1000 10:-486.493 11:999.509 12:486.002 13:0 
-0 0 0 0 0 0 0.0029372009160307595 0.00063051060711949848 0:3.16541 1:2 2:1.08787 3:3.92813 4:155.246 5:-1.66667 6:-5.5 7:-15.4394 8:-281.473 9:-1000 10:0 11:984.561 12:34.4418 13:0 
-1.5702905245086352e-06 1.5830860644338657e-06 0.0009213262007702485 0.00053911137100133252 0 0.0029696820018987945 0.0045917464919019869 0.00070094727735901981 0:2.08196 1:2 2:1.04984 3:2.72419 4:163.526 5:-1.84615 6:-1.85714 7:-9.59312 8:-454.185 9:-1000 10:0 11:990.407 12:26.133 13:0 
-0 -0 3.5116684004283864e-06 0 0 0 0 0 0:1.33039 1:2 2:6.33405 3:9.78023 4:126.18 5:0.285714 6:1.26087 7:-91.7431 8:-421.386 9:-167.036 10:0 11:908.257 12:330.275 13:5 
-1 -0 1.4478406516166007e-06 0 0 0 0 0 0:0.72945 1:2 2:3.01398 3:7.65643 4:126.204 5:0.272727 6:1.27273 7:-114.317 8:-775.721 9:0 10:0 11:615.133 12:224.279 13:5 
-1 -0 0 0 0 3.6253025649629508e-05 0 0 0:1.16735 1:2 2:3.11786 3:7.33685 4:126.021 5:0.179104 6:1.07692 7:-413.493 8:-689.608 9:0 10:0 11:586.507 12:167.029 13:3 
-0.48940308639103874 -0 0 0 0 0 0 0 0:1.06995 1:2 2:4.77058 3:9.04134 4:134.773 5:-0.333333 6:1.4 7:-135.048 8:-602.001 9:-40.7288 10:0 11:864.952 12:332.619 13:3 
-0.67707738599995326 -0 0 0 0 0 0 0 0:1.13812 1:2 2:4.46055 3:8.49991 4:130.096 5:0.301887 6:1.41667 7:-150.719 8:-593.84 9:0 10:0 11:849.281 12:284.805 13:3 
-0 -2.4162463149544599e-06 6.6188573751738784e-06 9.8660028882436706e-06 2.2375253691599163e-05 0 1.5511304092910066e-06 2.0635044546117006e-06 0:1.9497 1:2 2:7.57744 3:10.6974 4:136.29 5:-1.75 6:-1.04762 7:-99.7824 8:-509.481 9:-381.411 10:-382.033 11:900.218 12:3.41933 13:5 
-0 -0 0 0 0 4.2344316221645013e-05 0 0 0:2.88862 1:2 2:25.5172 3:16.043 4:134.089 5:-1.14286 6:-0.6 7:-172.115 8:-338.642 9:-253.982 10:-295.893 11:827.885 12:7.54401 13:5 
-0 -0 0 0 1.2827330839236519e-05 0 0 0 0:2.2742 1:2 2:20.0636 3:14.2484 4:131.36 5:-0.344262 6:1.05556 7:-59.6911 8:-17.6138 9:-183.197 10:0 11:940.309 12:422.101 13:5 
-0.053342520052422716 -0 0 0 7.6565702439908238e-06 0 0 0 0:0.681886 1:2 2:6.88245 3:23.7407 4:98.8739 5:-1.42857 6:3.30769 7:-15.2195 8:-143.321 9:-267.812 10:-670.536 11:666.667 12:856.679 13:4 
-0 -5.8150875788024973e-07 0 0 0 0 0 1.5842134689179863e-06 0:2.90691 1:2 2:26.3624 3:16.7704 4:136.924 5:0.05 6:0.478261 7:-209.31 8:-0.660284 9:-285.573 10:-50.5117 11:790.69 12:343.348 13:5 
-0.070242409654325141 -0 0 0 0 0 0 0 0:2.00949 1:2 2:14.5811 3:18.3649 4:114.707 5:-4 6:-0.357143 7:-225.219 8:-428.186 9:-213.756 10:-221.173 11:774.781 12:69.4538 13:7 
-0 -0 0 0 0 6.8902121043081603e-05 0 0 0:2.47317 1:2 2:15.9768 3:18.7942 4:118.737 5:-0.75 6:-0.583333 7:-170.151 8:-314.898 9:-247.42 10:-160.625 11:829.849 12:89.4417 13:3 
-0 -1.7252634107641239e-06 0 0 1.9549706519184149e-05 0 0 2.904791708060356e-07 0:1.74746 1:2 2:19.4027 3:16.359 4:112.787 5:0.125 6:-0.3 7:-251.11 8:-85.7533 9:-340.622 10:-215.579 11:748.89 12:486.505 13:6 
-0 -0 0 2.2265485020029271e-06 0 7.7193227280122238e-06 5.4234087737330079e-06 0 0:1.83315 1:2 2:57.1016 3:16.2592 4:107.644 5:0.625 6:-1 7:-380.782 8:-226.201 9:-421.068 10:-259.326 11:619.218 12:319.308 13:6 
-0.044089719501027996 -0 0 0 0 0 0 0 0:1.14211 1:2 2:3.53349 3:6.98205 4:138.146 5:7 6:1.25 7:-287.985 8:-637.725 9:0 10:0 11:712.015 12:237.848 13:4 
-0.42854436973191434 -0 0 0 0 0 0 0 0:1.32822 1:2 2:4.19164 3:8.08154 4:125.558 5:0.275 6:0.95 7:-318.995 8:-494.515 9:0 10:0 11:681.005 12:258.372 13:5 
-6.0827661416467125e-06 -0 -7.9896388322676056e-06 0 3.1763908113396666e-06 0 0 0 0:1.19669 1:2 2:2.46982 3:6.21553 4:146.038 5:0.6 6:1.41463 7:-46.1435 8:-835.635 9:-437.521 10:0 11:953.857 12:0 13:2 
-2.2479614202999337e-06 -0 -0 0 0 0 0 0 0:0.719332 1:2 2:1.80506 3:5.30084 4:151.285 5:1.6 6:3.13333 7:-39.9781 8:-1000 9:-452.629 10:0 11:679.354 12:0 13:2 
-0 -0 -0 0 0 8.3758183547021339e-05 0 0 0:1.39774 1:2 2:2.26464 3:7.31258 4:132.519 5:-0.0869565 6:1.83333 7:-97.8456 8:-707.81 9:-869.838 10:-56.553 11:902.154 12:7.63016 13:2 
-0 -0.00096652008475827051 -0 0.00025601014725062411 0 0.0034260783155802919 0.00023651007258850812 0 0:2.0807 1:2 2:1.86509 3:7.86504 4:138.308 5:-0.2 6:0 7:-17.4255 8:-439.011 9:-962.901 10:0 11:982.574 12:41.5964 13:2 
-0 -0 -0 0.00037865452845484387 0 0.0029717258401359163 0 0 0:1.64788 1:2 2:2.06287 3:7.41845 4:138.942 5:-0.0909091 6:5.54545 7:-107.374 8:-570.86 9:-962.952 10:0 11:892.626 12:35.9809 13:2 
-0 -0 -0 0 2.1813640607208741e-05 0 0.0001002941262745561 3.9944786048607398e-05 0:1.99209 1:2 2:2.06615 3:7.13878 4:144.486 5:0.7 6:14.6667 7:-34.1861 8:-284.186 9:-905.712 10:-1.54389 11:965.814 12:217.799 13:2 
-0 -0 -3.5887275949512608e-06 0 0 0 0 0 0:1.30028 1:2 2:2.89595 3:8.15011 4:134.985 5:-0.666667 6:7 7:-6.42674 8:-452.014 9:-743.359 10:0 11:993.573 12:317.052 13:2 
-0 -0 -0 0 0 0.0040979433780442562 0 0 0:1.87442 1:2 2:2.30354 3:7.51354 4:134.237 5:-0.5 6:8 7:-119.989 8:-529.929 9:-808.896 10:0 11:880.011 12:3.56947 13:2 
-0 -0 -0 -0 0 0 0.00078637526996290584 0 0:2.10744 1:2 2:2.26086 3:9.48734 4:107.753 5:42 6:-2.6 7:-76.8466 8:-264.611 9:-991.544 10:-474.509 11:923.153 12:209.898 13:4 
-0 -0 -0 -0 0 0 0.00040670142373381164 0 0:2.08867 1:2 2:1.90312 3:6.5423 4:121.245 5:1.75 6:-1.57895 7:-35.6761 8:-186.943 9:-918.659 10:-478.773 11:964.324 12:291.83 13:5 
-0 -0 -0 -0 0 0 0.0047063609499002519 0 0:2.08867 1:2 2:1.90312 3:6.5423 4:121.245 5:1.75 6:-1.57895 7:-35.6761 8:-186.943 9:-918.659 10:-478.773 11:964.324 12:291.83 13:5 
-2.9073466518586327e-07 -0 -0 -0 0 0 0 0 0:1.07095 1:2 2:2.25786 3:5.41506 4:121.863 5:-1.45455 6:-0.9 7:-164.41 8:-918.279 9:-954.062 10:-311.412 11:835.59 12:15.4739 13:3 
-0 -0 -0 -0 0 0 0 3.4046221264079506e-05 0:3.91091 1:2 2:1.37327 3:7.32928 4:122.088 5:-1.1875 6:0.5625 7:-9.49127 8:-143.318 9:-1000 10:-255.695 11:990.509 12:112.377 13:5 
-0 -0.00014298806991719083 -0 -0 0 0 0 0 0:2.58835 1:2 2:1.45638 3:5.78703 4:129.02 5:-0.0625 6:0.37931 7:-7.46083 8:-123.725 9:-1000 10:-386.347 11:992.539 12:262.621 13:6 
-0 -0 -0 -0 0 0 0.056360124971751573 3.231636125550465e-05 0:2.15702 1:2 2:1.31296 3:4.09262 4:121.247 5:-0.541667 6:0.555556 7:-14.1596 8:-104.781 9:-1000 10:-463.602 11:985.84 12:358.821 13:3 
-0 -0 -0 -0 0 0.4095295394985155 0 0 0:3.55947 1:2 2:1.48785 3:7.52574 4:133.478 5:-0.5 6:0.253333 7:-23.0507 8:-255.26 9:-1000 10:-280.941 11:976.949 12:25.6807 13:2 
-0 -0 -0 -0 0 1 0 0 0:2.43932 1:2 2:1.50277 3:5.09238 4:145.879 5:-0.37931 6:0.84 7:-43.405 8:-313.294 9:-1000 10:-409.951 11:956.595 12:96.6572 13:4 
-0 -0 -0 -0 0 1 0 0 0:2.95568 1:2 2:1.39599 3:5.19117 4:145.845 5:-0.225 6:0.509091 7:-58.1295 8:-219.491 9:-1000 10:-338.331 11:941.87 12:118.84 13:4 
-0 -0 -0 -0 0 1 0 0 0:2.68059 1:2 2:1.40903 3:5.08126 4:148.083 5:0.666667 6:0.434211 7:-29.7892 8:-256.989 9:-1000 10:-373.052 11:970.211 12:116.063 13:4 
-0 -0 -0 -0 0 0.18164726018811272 0 0 0:3.11716 1:2 2:1.55192 3:6.71336 4:136.782 5:-0.0952381 6:2 7:-54.8367 8:-320.394 9:-1000 10:-290.614 11:945.163 12:0.410762 13:4 
-0 -0 -0 -0 0 0 0.011487920225017011 0 0:4.5329 1:2 2:1.65121 3:10.4028 4:124.132 5:-1.72727 6:-1 7:-82.5505 8:-205.807 9:-999.431 10:-173.356 11:917.449 12:14.8022 13:5 
-0 -0 -0 -0 0 1 0 0 0:3.36645 1:2 2:1.52323 3:6.83877 4:137.103 5:-0.473684 6:0.357143 7:-64.2955 8:-290.405 9:-1000 10:-291.186 11:935.705 12:6.64452 13:4 
-0 -0 -0 -0 0 1 0 0 0:4.00086 1:2 2:1.41981 3:7.03301 4:136.396 5:-1.15385 6:0.727273 7:-67.1112 8:-208.217 9:-1000 10:-249.946 11:932.889 12:41.7294 13:4 
-0 -0 -0 -0 0 1 0 0 0:2.96898 1:2 2:1.3914 3:5.17127 4:139.489 5:-0.136364 6:1 7:-61.1383 8:-201.867 9:-1000 10:-336.816 11:938.862 12:134.949 13:4 
-0 -0 -0 -0 0 0.86318087953495015 0 0 0:2.83281 1:2 2:1.36843 3:4.75555 4:140.675 5:-0.95 6:0.5 7:-76.1984 8:-145.47 9:-1000 10:-353.006 11:923.802 12:207.537 13:4 
-0 -0 -0 -0 0 0.23903368408932932 0 0 0:2.94928 1:2 2:1.81027 3:6.99773 4:134.587 5:-0.225806 6:0.361111 7:-159.252 8:-335.888 9:-1000 10:-204.86 11:840.748 12:3.17757 13:4 
-0 -0 -0 -0 0 1 0 0 0:2.70488 1:2 2:1.57506 3:5.83356 4:145.724 5:0.363636 6:0.5 7:-68.2296 8:-335.738 9:-1000 10:-369.702 11:931.77 12:33.9645 13:4 
-0 -0 -0 -0 0 1 0 0 0:3.79248 1:2 2:1.47397 3:7.21856 4:141.148 5:-0.170213 6:0.320988 7:-74.106 8:-262.531 9:-1000 10:-125.377 11:925.894 12:1.14893 13:4 
-0 -0 -0 -0 0 1 0 0 0:2.82027 1:2 2:1.43696 3:5.39152 4:141.143 5:-0.189189 6:0.941176 7:-46.3313 8:-226.74 9:-1000 10:-354.576 11:953.669 12:127.837 13:4 
-0 -0 -0 -0 0 1 0 0 0:3.39153 1:2 2:1.54734 3:6.80993 4:149.376 5:-0.8 6:3.5 7:-84.7076 8:-281.109 9:-1000 10:-251.374 11:915.292 12:13.7431 13:3 
-0 -0 -0 -0 0 1 0 0 0:3.16573 1:2 2:1.47829 3:6.44178 4:142.269 5:-0.407407 6:1.33333 7:-36.2133 8:-268.451 9:-1000 10:-315.883 11:963.787 12:47.4316 13:4 
-0 -0 -0 -0 0 1 0 0 0:4.5658 1:2 2:1.40188 3:8.20154 4:141.929 5:-1 6:5 7:-45.1625 8:-216.633 9:-1000 10:-168.533 11:954.838 12:2.38663 13:4 
-0 -0 -0 -0 0 1 0 0 0:3.2845 1:2 2:1.57394 3:7.0728 4:139.837 5:0 6:2 7:-72.4569 8:-304.225 9:-1000 10:-209.818 11:927.543 12:0.236016 13:4 
-0 -0 -0 -0 0 1 0 0 0:3.11524 1:2 2:1.63532 3:7.15411 4:138.608 5:0.28125 6:2.38462 7:-82.6141 8:-321.003 9:-1000 10:-190.095 11:917.386 12:0 13:4 
-0 -0 -0 -4.0375762053649247e-05 0 0 0 0 0:1.49117 1:2 2:2.78206 3:9.53792 4:102.952 5:-0.454545 6:0.125 7:-23.6769 8:-602.368 9:-894.847 10:-342.618 11:976.323 12:68.2451 13:2 
-0 -0 -0 -0 0 1 0 0 0:2.39889 1:2 2:1.59837 3:5.49331 4:137.804 5:-0.190476 6:0.510204 7:-112.511 8:-416.579 9:-1000 10:-86.8865 11:887.489 12:0.280053 13:4 
-0 -0 -0 -0 0 1 0 0 0:2.23429 1:2 2:1.57737 3:5.13477 4:132.584 5:-1.57143 6:0.266667 7:-124.448 8:-439.47 9:-1000 10:-43.1517 11:875.552 12:8.10015 13:7 
-0 -0 -0 -0 0 1 0.014661876384149007 0 0:2.57335 1:2 2:1.47781 3:5.4231 4:127.045 5:-4 6:0.115385 7:-85.1414 8:-383.211 9:-1000 10:-25.4377 11:914.859 12:5.3868 13:4 
-0 -0.0011681033913528208 -0 -0 0.00021117176262609497 1 0 5.8354360388937589e-05 0:3.51571 1:2 2:1.36922 3:6.53816 4:140.24 5:3 6:0.20339 7:-22.2137 8:-284.438 9:-1000 10:-94.9828 11:977.786 12:0 13:4 
-0 -0 -0 -0 0 1 0 0 0:3.02306 1:2 2:1.49928 3:6.36142 4:138.598 5:0.266667 6:0.271186 7:-60.7549 8:-330.791 9:-1000 10:-98.5005 11:939.245 12:0 13:6 
-0 -0 -0 -0.0005942889136518187 0 1 0.001314266412294921 0 0:2.01757 1:2 2:1.56674 3:5.34876 4:134.407 5:0.2 6:0.0555556 7:-85.2255 8:-495.645 9:-1000 10:-2.48834 11:914.774 12:0 13:3 
-0 -0 -0 -0 0 1 0 0 0:2.73692 1:2 2:1.48643 3:5.53698 4:138.612 5:0.388889 6:0.205882 7:-77.2587 8:-365.375 9:-1000 10:-112.038 11:922.741 12:0 13:4 
-0 -0 -0 -0 0 1 0 0 0:3.1151 1:2 2:1.48384 3:6.42934 4:143.324 5:1.03846 6:0.229167 7:-54.3763 8:-321.017 9:-1000 10:-113.208 11:945.624 12:0 13:4 
-0 -0 -0 -0 0 1 0 0 0:3.37471 1:2 2:1.48197 3:6.84117 4:134.467 5:0.545455 6:0.314815 7:-51.1494 8:-296.322 9:-1000 10:-145.632 11:948.851 12:0 13:4 
-0 -0 -0 -0 0 0.74362921056956388 0 0 0:2.21129 1:2 2:1.74397 3:6.00227 4:135.016 5:1.07143 6:0.18797 7:-90.764 8:-452.224 9:-1000 10:-195.791 11:909.236 12:0 13:4 
-0 -0 -0 -0 0 1 0 0 0:3.33006 1:2 2:1.51509 3:6.8015 4:136.066 5:0.891892 6:0.174603 7:-80.1923 8:-300.295 9:-1000 10:-91.2052 11:919.808 12:0 13:2 
-0 -0 -0 -0 0 1 0 0 0:2.80041 1:2 2:1.63494 3:6.08266 4:132.504 5:0.762712 6:0 7:-136.752 8:-357.091 9:-1000 10:-97.4938 11:863.248 12:0 13:2 
-0 -0 -0 -0 0 1 0 0 0:2.53481 1:2 2:2.19377 3:7.46085 4:129.875 5:0.144928 6:0.229508 7:-253.612 8:-394.507 9:-1000 10:-161.064 11:746.388 12:0 13:2 
-0 -0 -0 -0 0 0.80865309280723019 0 0 0:1.88239 1:2 2:2.02779 3:6.21043 4:134.556 5:1.5 6:6.83333 7:-161.983 8:-528.926 9:-1000 10:-212.562 11:838.017 12:2.31405 13:4 
-0 -0 -0 -0 0 0 0.066783839230847145 0 0:3.39747 1:2 2:1.62849 3:7.5545 4:137.561 5:0.264706 6:0.0952381 7:-115.608 8:-294.337 9:-1000 10:-57.0442 11:884.392 12:0 13:6 
-0 -0 -0 -0 0 1 0 0 0:3.66789 1:2 2:1.52152 3:7.47011 4:135.012 5:0.615385 6:0.142857 7:-75.5659 8:-272.636 9:-1000 10:-114.015 11:924.434 12:0 13:4 
-0 -0 -0 -0 0 1 0 0 0:4.0845 1:2 2:1.5291 3:8.19046 4:137.476 5:0.526316 6:0.454545 7:-80.4169 8:-244.828 9:-1000 10:-135.324 11:919.583 12:0 13:4 
-0 -0 -0 -0 0 1 0 0 0:2.9816 1:2 2:1.59581 3:6.49123 4:137.109 5:0.805556 6:0.253165 7:-81.8871 8:-335.39 9:-1000 10:-225.993 11:918.113 12:0 13:4 
-0 -0 -0 -0 0 1 0 0 0:3.12718 1:2 2:1.51638 3:7.31394 4:131.936 5:-1.5 6:0.666667 7:0 8:-319.777 9:-1000 10:-188.858 11:1000 12:0 13:3 
-0 -0 -0 -0 0 0 0.00017035533939169042 0 0:2.10744 1:2 2:2.26086 3:9.48734 4:107.753 5:42 6:-2.6 7:-76.8466 8:-264.611 9:-991.544 10:-474.509 11:923.153 12:209.898 13:4 
-0 -0 -0 -0 0 0 0.0021143322269183409 0 0:2.08867 1:2 2:1.90312 3:6.5423 4:121.245 5:1.75 6:-1.57895 7:-35.6761 8:-186.943 9:-918.659 10:-478.773 11:964.324 12:291.83 13:5 
-2.2358020358334018e-06 -0 -5.6102722889332327e-06 -0 0 0 0 0 0:2.35249 1:2 2:3.52156 3:11.7474 4:125.767 5:-0.0116279 6:-1.02941 7:-187.706 8:-424.808 9:-816.685 10:-340.834 11:812.294 12:0.274424 13:5 
-0 -0 -0 -0 0 0 2.7720373503271127e-05 0 0:2.08867 1:2 2:1.90312 3:6.5423 4:121.245 5:1.75 6:-1.57895 7:-35.6761 8:-186.943 9:-918.659 10:-478.773 11:964.324 12:291.83 13:5 
-0 -0 -2.8273426414335725e-06 -0 0 0 0 0 0:1.44194 1:2 2:4.35441 3:11.1516 4:113.241 5:-0.375 6:-0.392857 7:-93.9597 8:-587.248 9:-723.714 10:-693.512 11:906.04 12:106.264 13:5 
-0 -0 -3.6549364598797946e-06 -0 0.00018554401153175312 0 0 0 0:2.12798 1:2 2:2.94385 3:8.8804 4:115.869 5:-0.785714 6:-0.416667 7:-87.5662 8:-340.916 9:-769.399 10:-469.928 11:912.434 12:129.012 13:3 
-0 -0 -0 -0 0.0008678629281480846 0 0 0 0:1.88107 1:2 2:1.72021 3:4.88716 4:132.057 5:7 6:-0.95 7:0 8:-189.225 9:-872.217 10:-531.612 11:1000 12:342.386 13:4 
-0 -0 -0 -0 0.00041050719679377811 0.28823164995059081 0 0 0:2.49935 1:2 2:1.8518 3:6.20081 4:131.269 5:-3.4 6:-1.125 7:-36.1384 8:-234.383 9:-870.418 10:-400.103 11:963.862 12:165.72 13:2 
-0 -0 -0 -4.3568041419875264e-07 -0.0016708159865098547 5.3141294234648942e-06 0 4.9869658486043151e-07 0:2.16599 1:2 2:2.51347 3:10.2649 4:129.859 5:0.666667 6:-0 7:-7.92752 8:-226.878 9:-850.887 10:-425.821 11:992.072 12:234.806 13:5 
-0 -0.00052119342361665823 -0 -0 -4.2699125898558465e-06 0 4.6785319505518749e-05 1.2573546375663451e-07 0:2.42356 1:2 2:2.21927 3:11.2948 4:127.013 5:0.8 6:0.388889 7:-12.2089 8:-7.23491 9:-897.807 10:-409.677 11:987.791 12:405.381 13:5 
-0 -0 -0 -2.4554351004349656e-05 -0 0.00012060429420700404 0 0 0:3.05644 1:2 2:2.52938 3:8.11211 4:130.547 5:-0.0416667 6:17 7:-30.1084 8:-189.482 9:-672.421 10:-141.71 11:969.892 12:137.696 13:4 
-0 -0 -1.2750726825453259e-09 -0 -0 0 0 0 0:3.64496 1:2 2:4.94413 3:12.6 4:136.017 5:0.44186 6:-4.6 7:-60.9671 8:-40.2943 9:-423.616 10:-139.804 11:939.033 12:234.057 13:3 
-0 -0 -0 -0 -0 1.8814555133322543e-05 5.5190834508525588e-05 3.1421694164288913e-05 0:3.43703 1:2 2:2.40639 3:12.7329 4:117.494 5:0.565217 6:-1 7:-27.8146 8:-67.1082 9:-799.558 10:-277.263 11:972.185 12:223.841 13:5 
-3.3483067978494281e-06 -0 -6.2407586221328114e-05 -0 -0 0 0 0 0:1.79822 1:2 2:5.30147 3:7.59335 4:131.676 5:1.42424 6:-1.18182 7:-87.7898 8:-191.654 9:-461.824 10:-293.354 11:912.21 12:364.451 13:1 
-1.266852925227614e-06 -0 -0 -0 -0 0 0 0 0:5.78549 1:2 2:4.07353 3:16.4425 4:159.994 5:0.642857 6:0.0484848 7:0 8:-21.265 9:-413.304 10:0 11:1000 12:151.581 13:2 
-0 -0 -0 -0 -0.18580332248486339 -0 0 0 0:1.79832 1:2 2:1.56549 3:4.65556 4:140.428 5:28 6:0.2 7:-70.4272 8:-527.37 9:-980.307 10:-49.3992 11:929.573 12:28.7049 13:3 
-0 -0 -0 -0 -0.55849009577338993 -0 0 0 0:2.74241 1:2 2:1.73973 3:6.05427 4:144.761 5:-1.80952 6:2 7:-146.299 8:-320.138 9:-999.508 10:-282.272 11:853.701 12:44.5045 13:3 
-0 -0 -0 -0 -1 -0 0 0 0:3.18265 1:2 2:1.53324 3:6.25339 4:146.791 5:-4.9 6:-1.25 7:-86.3223 8:-265.184 9:-1000 10:-233.62 11:913.678 12:49.0196 13:4 
-0 -0 -0 -0 -0.10422457990054142 -0 0 0 0:2.99256 1:2 2:1.42612 3:5.56807 4:141.38 5:-1.45455 6:0.75 7:-64.0707 8:-322.839 9:-1000 10:-125.656 11:935.929 12:11.3228 13:5 
-0 -0 -0 -0 -1 -0 0 0 0:3.11079 1:2 2:1.43883 3:5.80345 4:141.688 5:11 6:5 7:-61.0096 8:-311.242 9:-999.69 10:-169.712 11:938.99 12:10.2199 13:5 
-0 -0 -0 -0 -1 -0 0.0032891927380229759 0 0:3.19569 1:2 2:1.4542 3:6.0213 4:115.224 5:-1.55556 6:-1 7:-86.9996 8:-287.554 9:-999.802 10:-47.1661 11:913 12:25.3666 13:3 
-0 -0 -0 -0 -1 -0 0 0 0:3.38986 1:2 2:1.41174 3:5.91352 4:146.995 5:-6.33333 6:2 7:-66.705 8:-229.73 9:-1000 10:-294.997 11:933.295 12:65.2674 13:3 
-0 -0 -0 -0 -0.037274148979607381 -0 0 0 0:2.17457 1:2 2:1.74877 3:5.33265 4:162.004 5:0.375 6:-1 7:-104.336 8:-459.021 9:-999.72 10:-446.434 11:895.664 12:0.839161 13:2 
-0 -4.7307738287877054e-05 -0 -8.6096896708669215e-05 -0 -0 0 0 0:2.56116 1:2 2:4.16876 3:11.4386 4:130.76 5:-0.833333 6:-2 7:-352.898 8:-374.772 9:-2.91651 10:-8.02042 11:647.102 12:15.6763 13:2 
-0 -0 -0 -0 -0.59834468972329746 -0 0 0 0:1.79832 1:2 2:1.56549 3:4.65556 4:140.428 5:28 6:0.2 7:-70.4272 8:-527.37 9:-980.307 10:-49.3992 11:929.573 12:28.7049 13:3 
-0 -0 -0 -0 -1 -0 0 0 0:2.74241 1:2 2:1.73973 3:6.05427 4:144.761 5:-1.80952 6:2 7:-146.299 8:-320.138 9:-999.508 10:-282.272 11:853.701 12:44.5045 13:3 
-0 -0 -0 -0 -1 -0 0 0 0:3.18265 1:2 2:1.53324 3:6.25339 4:146.791 5:-4.9 6:-1.25 7:-86.3223 8:-265.184 9:-1000 10:-233.62 11:913.678 12:49.0196 13:4 
-0 -0 -0 -0 -0.049199766717879193 -0 0 0 0:2.99256 1:2 2:1.42612 3:5.56807 4:141.38 5:-1.45455 6:0.75 7:-64.0707 8:-322.839 9:-1000 10:-125.656 11:935.929 12:11.3228 13:5 
-0 -0 -0 -0 -1 -0 0 0 0:3.11079 1:2 2:1.43883 3:5.80345 4:141.688 5:11 6:5 7:-61.0096 8:-311.242 9:-999.69 10:-169.712 11:938.99 12:10.2199 13:5 
-0 -0 -0 -0 -1 -0 0.0014330626753689755 0 0:3.19569 1:2 2:1.4542 3:6.0213 4:115.224 5:-1.55556 6:-1 7:-86.9996 8:-287.554 9:-999.802 10:-47.1661 11:913 12:25.3666 13:3 
-0 -0 -0 -0 -1 -0 0 0 0:3.38986 1:2 2:1.41174 3:5.91352 4:146.995 5:-6.33333 6:2 7:-66.705 8:-229.73 9:-1000 10:-294.997 11:933.295 12:65.2674 13:3 
-0 -0 -0 -0 -0.030541884500188136 -0 0 0 0:2.17457 1:2 2:1.74877 3:5.33265 4:162.004 5:0.375 6:-1 7:-104.336 8:-459.021 9:-999.72 10:-446.434 11:895.664 12:0.839161 13:2 
-5.8298732263446355e-05 -0.00024093317896895403 -0.00011749446313307303 -0.00093197392974208931 -0 -3.6114722885346519e-05 0 0 0:2.56116 1:2 2:4.16876 3:11.4386 4:130.76 5:-0.833333 6:-2 7:-352.898 8:-374.772 9:-2.91651 10:-8.02042 11:647.102 12:15.6763 13:2 
-0 -0 -3.7724322509295366e-05 -0 -0 -0 0 0 0:2.1731 1:2 2:1.51661 3:4.87813 4:156.689 5:0 6:0.452381 7:-12.6839 8:-426.18 9:-1000 10:-460.173 11:987.316 12:33.9929 13:2 
-0 -0 -0 -0 -1 -0 0 0 0:4.55794 1:2 2:1.292 3:7.41355 4:129.934 5:-4.5 6:0.2 7:-19.1463 8:-215.945 9:-1000 10:-104.991 11:980.854 12:3.45261 13:4 
-0 -0 -0 -0 -1 -0 0 0 0:2.99622 1:2 2:1.6081 3:7.04038 4:141.886 5:-1 6:-3.22222 7:-55.0305 8:-332.283 9:-993.069 10:-162.781 11:944.97 12:1.47028 13:5 
-0 -0 -0 -0 -1 -0 0 0 0:2.69026 1:2 2:1.6644 3:6.67129 4:141.441 5:-0.461538 6:4.6 7:-68.0904 8:-368.307 9:-1000 10:-204.89 11:931.91 12:3.40452 13:4 
-0 -0 -0 -0 -1 -0 0 0 0:3.23838 1:2 2:1.50521 3:6.35848 4:136.336 5:-0.135593 6:0.956522 7:-92.015 8:-307.548 9:-1000 10:-102.152 11:907.985 12:1.24766 13:4 
-0 -0 -0 -0.0001583679824946519 -1 -0 0 0 0:2.15043 1:2 2:1.61818 3:5.97871 4:138.298 5:-2.75 6:0.0454545 7:-73.2595 8:-461.882 9:-1000 10:-11.4106 11:926.741 12:3.14205 13:6 
-0 -0.0051983926769127945 -0 -0 -0 -0 0 0 0:4.24928 1:2 2:1.31306 3:6.64499 4:155.545 5:-0.214286 6:6 7:-69.4538 8:-232.131 9:-999.831 10:-28.6581 11:930.546 12:3.20297 13:3 
-0 -0 -0 -0 -1 -0 0 0 0:4.01116 1:2 2:1.48192 3:8.39114 4:138.899 5:0.538462 6:0.833333 7:-24.3152 8:-224.403 9:-1000 10:-249.304 11:975.685 12:24.9011 13:4 
-0 -0 -0 -0 -1 -0 0 0 0:3.06054 1:2 2:1.63866 3:7.16504 4:130.489 5:-0.0555556 6:0.25 7:-90.1099 8:-326.374 9:-1000 10:-116.728 11:909.89 12:0.3663 13:4 
-0 -0 -0 -0 -1 -0 0 0 0:3.32353 1:2 2:1.6631 3:8.24745 4:129.916 5:0.461538 6:0.301887 7:-53.8613 8:-300.885 9:-1000 10:-256.064 11:946.139 12:0 13:6 
-0 -0 -0 -0 -1 -0 0 0 0:3.4925 1:2 2:1.71566 3:9.38723 4:128.087 5:0.0847458 6:0.288136 7:-44.7207 8:-267.235 9:-1000 10:-243.145 11:955.279 12:19.0928 13:4 
-0 -0 -0 -0 -0.0026038214515130063 -0 0 0 0:1.79832 1:2 2:1.56549 3:4.65556 4:140.428 5:28 6:0.2 7:-70.4272 8:-527.37 9:-980.307 10:-49.3992 11:929.573 12:28.7049 13:3 
-0 -0 -0 -0 -1 -0 0 0 0:2.74241 1:2 2:1.73973 3:6.05427 4:144.761 5:-1.80952 6:2 7:-146.299 8:-320.138 9:-999.508 10:-282.272 11:853.701 12:44.5045 13:3 
-0 -0 -0 -0 -1 -0 0 0 0:3.18265 1:2 2:1.53324 3:6.25339 4:146.791 5:-4.9 6:-1.25 7:-86.3223 8:-265.184 9:-1000 10:-233.62 11:913.678 12:49.0196 13:4 
-0 -0 -0 -0 -0.070034446923712398 -0 0 0 0:2.99256 1:2 2:1.42612 3:5.56807 4:141.38 5:-1.45455 6:0.75 7:-64.0707 8:-322.839 9:-1000 10:-125.656 11:935.929 12:11.3228 13:5 
-0 -0 -0 -0 -1 -0 0 0 0:3.11079 1:2 2:1.43883 3:5.80345 4:141.688 5:11 6:5 7:-61.0096 8:-311.242 9:-999.69 10:-169.712 11:938.99 12:10.2199 13:5 
-0 -0 -0 -0 -1 -0 0.0015669563826721045 0 0:3.19569 1:2 2:1.4542 3:6.0213 4:115.224 5:-1.55556 6:-1 7:-86.9996 8:-287.554 9:-999.802 10:-47.1661 11:913 12:25.3666 13:3 
-0 -0 -0 -0 -1 -0 0 0 0:3.38986 1:2 2:1.41174 3:5.91352 4:146.995 5:-6.33333 6:2 7:-66.705 8:-229.73 9:-1000 10:-294.997 11:933.295 12:65.2674 13:3 
-0 -0 -0 -0 -0.23634916278297208 -0 0 0 0:2.17457 1:2 2:1.74877 3:5.33265 4:162.004 5:0.375 6:-1 7:-104.336 8:-459.021 9:-999.72 10:-446.434 11:895.664 12:0.839161 13:2 
-0 -0 -0 -0 -0.97342829819341625 -0 0 0 0:2.74241 1:2 2:1.73973 3:6.05427 4:144.761 5:-1.80952 6:2 7:-146.299 8:-320.138 9:-999.508 10:-282.272 11:853.701 12:44.5045 13:3 
-0 -0 -0 -0 -1 -0 0 0 0:3.18265 1:2 2:1.53324 3:6.25339 4:146.791 5:-4.9 6:-1.25 7:-86.3223 8:-265.184 9:-1000 10:-233.62 11:913.678 12:49.0196 13:4 
-0 -0 -0 -0 -0.0012373101325297941 -0 0 0 0:2.99256 1:2 2:1.42612 3:5.56807 4:141.38 5:-1.45455 6:0.75 7:-64.0707 8:-322.839 9:-1000 10:-125.656 11:935.929 12:11.3228 13:5 
-0 -0 -0 -0 -1 -0 0 0 0:3.11079 1:2 2:1.43883 3:5.80345 4:141.688 5:11 6:5 7:-61.0096 8:-311.242 9:-999.69 10:-169.712 11:938.99 12:10.2199 13:5 
-0 -0 -0 -0 -0 -0 0 2.4076653957134654e-05 0:1.97556 1:2 2:1.5204 3:4.57248 4:150.098 5:1.28571 6:-0.5 7:-107.041 8:-455.756 9:-998.097 10:-0.475737 11:892.959 12:50.4282 13:1 
-0 -0 -0 -0 -1 -0 0.006497132671892324 0 0:3.19569 1:2 2:1.4542 3:6.0213 4:115.224 5:-1.55556 6:-1 7:-86.9996 8:-287.554 9:-999.802 10:-47.1661 11:913 12:25.3666 13:3 
-0 -0 -0 -0 -1 -0 0 0 0:3.38986 1:2 2:1.41174 3:5.91352 4:146.995 5:-6.33333 6:2 7:-66.705 8:-229.73 9:-1000 10:-294.997 11:933.295 12:65.2674 13:3 
-0 -0 -0 -0 -0.68637378907422852 -0 0 0 0:2.17457 1:2 2:1.74877 3:5.33265 4:162.004 5:0.375 6:-1 7:-104.336 8:-459.021 9:-999.72 10:-446.434 11:895.664 12:0.839161 13:2 
-1.1080080810268994e-06 -0 -0 -0 -0 -0 0.032369140205261826 0 0:1.4641 1:2 2:1.67882 3:4.12013 4:155.919 5:-3.58333 6:-0.272727 7:-218.125 8:-622.205 9:-1000 10:0 11:781.875 12:60.8082 13:2 
-0 -0 -0 -0 -1 -0 0 0 0:1.62752 1:2 2:1.67181 3:4.47091 4:146.239 5:-2.16667 6:0.433333 7:-72.5291 8:-602.781 9:-1000 10:-252.537 11:927.471 12:11.6498 13:4 
-0 -0.046213368879900914 -0 -0 -1 -0.00010861825587844499 0.07297760428087291 0.00015912719508645945 0:4.4026 1:2 2:1.31493 3:7.58373 4:130.531 5:2 6:0.714286 7:0 8:-114.623 9:-992.415 10:-221.239 11:1000 12:112.516 13:3 
-0 -0 -0 -0 -1 -0 0 0 0:1.90149 1:2 2:1.65707 3:4.86102 4:131.274 5:-2.33333 6:-0.5 7:-60.241 8:-494.277 9:-996.687 10:-261.747 11:939.759 12:31.6265 13:4 
-0 -0 -0 -0.0094030669083620712 -0 -0 0 0 0:1.8109 1:2 2:1.44567 3:4.41652 4:149.128 5:5.6 6:-1 7:-54.8673 8:-528.192 9:-998.736 10:-2.78129 11:945.133 12:24.0202 13:3 
-0 -0 -0 -0 -0 -0 -0 0.0017844173773586499 0:2.59758 1:2 2:1.93811 3:9.63369 4:141.894 5:-26 6:-0.142857 7:-2.32964 8:-193.943 9:-995.923 10:-204.426 11:997.67 12:191.031 13:2 
-0 -0 -0 -0 -0.0080768912014143376 -0 -0 0 0:2.50515 1:2 2:2.08598 3:9.30253 4:129.68 5:-0.0136986 6:0.666667 7:-78.1893 8:-266.975 9:-999.228 10:-195.73 11:921.811 12:132.202 13:5 
-0 -0 -0 -0 -0.012307890010328407 -0 -0 0 0:2.50515 1:2 2:2.08598 3:9.30253 4:129.68 5:-0.0136986 6:0.666667 7:-78.1893 8:-266.975 9:-999.228 10:-195.73 11:921.811 12:132.202 13:5 
-0 -0 -0 -0.00024627438444279584 -0 -0 -0.044228579063741454 0 0:2.18994 1:2 2:1.88968 3:8.28708 4:142.682 5:-0.6 6:0.0588235 7:-22.6537 8:-380.906 9:-1000 10:-57.6052 11:977.346 12:75.7282 13:3 
-0 -0 -0 -6.7007995735349972e-05 -0 -0 -0 0 0:2.63056 1:2 2:1.65932 3:7.80502 4:140.382 5:0.1 6:-0.142857 7:-6.189 8:-299.929 9:-1000 10:0 11:993.811 12:80.219 13:3 
-0 -0.020565931562017775 -0 -0 -0 -0 -0 0 0:3.38475 1:2 2:1.85954 3:11.5711 4:141.942 5:-3 6:-0 7:-7.34177 8:-189.62 9:-1000 10:-132.405 11:992.658 12:105.823 13:2 
-0 -0 -0 -0 -0 -2.5929333312541899e-05 -0 0 0:2.81036 1:2 2:2.44268 3:11.2046 4:112.849 5:0.833333 6:-0.0666667 7:-154.963 8:-42.3696 9:-925.853 10:-314.241 11:845.037 12:313.456 13:5 
-0 -0 -0 -0 -0 -0 -0.0012126006017235068 0 0:3.25383 1:2 2:3.23689 3:13.7703 4:114.564 5:1.55882 6:-0.181818 7:-331.204 8:-177.539 9:-959.987 10:-270.007 11:668.796 12:129.792 13:5 
-0 -0 -0 -0 -0.011972012022837998 -0 -0 0 0:3.16629 1:2 2:2.66474 3:10.7825 4:108.606 5:1.3871 6:0.0769231 7:-287.603 8:-147.553 9:-959.986 10:-313.326 11:712.397 12:168.274 13:4 
-0 -0.00058863194555066169 -5.7356232031071151e-06 -0 -0 -0 -0.0040599925024452236 0 0:2.86157 1:2 2:2.92012 3:12.7175 4:112.488 5:0.947368 6:0.142857 7:-200.645 8:-107.349 9:-892.651 10:-313.062 11:799.355 12:242.11 13:2 
-2.1589221217347925e-06 -0 -1.2389159799168994e-06 -0 -0 -0 -0 0 0:3.01099 1:2 2:3.83589 3:18.2757 4:100.721 5:5 6:0.5 7:-393.704 8:-308.394 9:-987.226 10:-62.9562 11:606.296 12:23.7226 13:8 
-0 -0 -0 -0 -0 -0 -0 0.0030940545545496316 0:3.44836 1:1 2:2.13033 3:15.1459 4:135.113 5:-0.863636 6:0.166667 7:-25.7377 8:0 9:-1000 10:-136.454 11:974.262 12:289.993 13:3 
-0 -0 -0 -0 -0 -0 -0.043155626944268742 0 0:3.47178 1:2 2:2.15431 3:12.3805 4:128.181 5:0.8125 6:0.153846 7:-123.466 8:-206.902 9:-1000 10:-199.54 11:876.534 12:81.135 13:4 
-0 -0 -0 -0 -0.023152938631956683 -0 -0 0 0:2.50515 1:2 2:2.08598 3:9.30253 4:129.68 5:-0.0136986 6:0.666667 7:-78.1893 8:-266.975 9:-999.228 10:-195.73 11:921.811 12:132.202 13:5 
-0 -0 -0 -0 -0.033280373690459393 -0 -0 0 0:2.50515 1:2 2:2.08598 3:9.30253 4:129.68 5:-0.0136986 6:0.666667 7:-78.1893 8:-266.975 9:-999.228 10:-195.73 11:921.811 12:132.202 13:5 
-0 -0 -0 -2.3521818684918415e-05 -0 -0 -0 0 0:2.15766 1:2 2:2.29269 3:9.26487 4:135.552 5:-0.393939 6:0 7:-147.454 8:-315.484 9:-994.724 10:-0.791348 11:852.546 12:147.982 13:5 
-0 -0 -0 -0 -0 -0 -0 0.0026315757349769861 0:2.59633 1:2 2:1.92833 3:9.90736 4:138.143 5:5.75 6:1.5 7:0 8:-272.406 9:-1000 10:-110.504 11:1000 12:112.753 13:2 
-0 -0 -0 -0 -0.070029767250472358 -0 -0 0 0:2.89647 1:2 2:1.91031 3:10.0699 4:130.881 5:-0.32 6:-0.5 7:-24.3972 8:-193.191 9:-998.865 10:-248.794 11:975.603 12:152.057 13:4 
-0 -0 -0 -0 -0 -0 -0.025476289841912803 0 0:3.05978 1:2 2:1.83604 3:9.86481 4:138.483 5:-1.125 6:0.666667 7:-24.5604 8:-226.068 9:-1000 10:-156.015 11:975.44 12:100.754 13:2 
-0 -0 -0 -0 -0 -7.6046820701502455e-05 -0 0 0:2.71142 1:2 2:2.09737 3:11.0879 4:124.812 5:-3.5 6:0.2 7:-19.4254 8:-59.6443 9:-964.432 10:-250.889 11:980.575 12:309.166 13:3 
-0 -0 -0 -0 -0 -0 -0 0.00032866342911824613 0:3.1861 1:2 2:1.79166 3:9.80972 4:114.181 5:-3.33333 6:0 7:-8.44476 8:-105.794 9:-987.098 10:-68.4964 11:991.555 12:208.069 13:4 
-0 -0 -0 -0 -0 -0 -0 0.0010750355848694656 0:2.87093 1:2 2:1.86875 3:9.50872 4:125.529 5:-5.33333 6:-0.181818 7:-4.76839 8:-140.1 9:-977.748 10:-181.653 11:995.232 12:208.22 13:3 
-1.6214338647698738e-06 -0.0043394136558418221 -3.9381970943357229e-06 -3.9944786048607398e-05 -0.00012471694290852175 -0 -0.00018320384904359409 -0.0050520534690890358 0:2.89977 1:2 2:1.47349 3:6.29629 4:153.484 5:-0.148148 6:1 7:0 8:-152.396 9:-1000 10:-144.933 11:1000 12:192.459 13:2 
-0 -0 -0 -0 -0 -3.2046126212905976e-05 -0 -0.0038616932117839439 0:2.819 1:2 2:2.45308 3:16.8817 4:116.306 5:0.6 6:0.2 7:-2.61476 8:-124.927 9:-1000 10:-144.683 11:997.385 12:229.808 13:3 
