svm_type c_svc
kernel_type linear
nr_class 3
total_sv 18
rho -1.2767831410010397 0.15225144183096881 72.704718598228268
label 4 10 5
nr_sv 4 9 5
SV
8.9540345582621198e-06 2.9634447762938595e-06 0:0.604732 1:3 2:9.35533 3:10.5555 4:74.563 5:3 6:3.33333 7:-218.219 8:-66.2268 9:-14.8439 10:-243.91 11:386.514 12:933.773 13:4 
1.094565897587085e-07 0 0:1.50308 1:3 2:2.36837 3:10.0217 4:133.738 5:2.66667 6:-0.6 7:-3.15159 8:-581.469 9:-1000 10:-139.931 11:996.848 12:83.8323 13:1 
1.5138556595367748e-05 4.2367669847050951e-06 0:1.50308 1:3 2:2.36837 3:10.0217 4:133.738 5:2.66667 6:-0.6 7:-3.15159 8:-581.469 9:-1000 10:-139.931 11:996.848 12:83.8323 13:1 
1.3616506489136554e-06 0 0:2.00048 1:3 2:2.39056 3:11.219 4:121.746 5:1 6:-0.214286 7:-5.31786 8:-380.952 9:-988.397 10:-258.883 11:994.682 12:118.927 13:4 
-2.9761603790071854e-07 0 0:1.56198 1:3 2:6.34739 3:15.4931 4:100.166 5:0.565217 6:-1 7:-9.74659 8:-246.449 9:-469.507 10:-59.8719 11:990.253 12:393.762 13:1 
-2.1805222207500721e-07 0 0:0.949627 1:3 2:7.66221 3:20.0933 4:103.343 5:0.222222 6:0.483871 7:-8.86194 8:-889.925 9:-496.269 10:-594.216 11:940.765 12:110.075 13:4 
-5.1490756785208114e-06 0 0:0.949627 1:3 2:7.66221 3:20.0933 4:103.343 5:0.222222 6:0.483871 7:-8.86194 8:-889.925 9:-496.269 10:-594.216 11:940.765 12:110.075 13:4 
-8.4160226528291989e-07 0 0:1.14472 1:3 2:7.58314 3:14.0227 4:94.4463 5:0 6:-0 7:-17.9748 8:-509.287 9:-466.747 10:-401.438 11:982.025 12:364.29 13:6 
-0 0.0047158353617517152 0:1.80222 1:3 2:8.4322 3:20.3258 4:118.535 5:-0.333333 6:-16 7:-1.02564 8:-514.188 9:-64.6154 10:-121.026 11:998.974 12:40.6838 13:7 
-0 0.0014855428088662525 0:1.8648 1:3 2:6.63649 3:16.9765 4:114.977 5:0.384615 6:-0.636364 7:-10.168 8:-419.982 9:-283.378 10:-56.5871 11:989.832 12:116.269 13:5 
-1.9057352188522771e-05 0 0:1.56198 1:3 2:6.34739 3:15.4931 4:100.166 5:0.565217 6:-1 7:-9.74659 8:-246.449 9:-469.507 10:-59.8719 11:990.253 12:393.762 13:1 
-0 0.011840837585569306 0:1.9976 1:3 2:7.47256 3:13.8616 4:108.382 5:0.210526 6:5 7:-22.4269 8:-239.087 9:-302.363 10:-24.8298 11:977.573 12:261.514 13:6 
-0 0.033835934266393766 0:1.65265 1:3 2:7.11671 3:16.7795 4:111.078 5:-2.5 6:-1.6 7:-1.98282 8:-428.949 9:-233.311 10:-45.6048 11:998.017 12:176.14 13:5 
-0 -0.0015046467939953956 0:1.24838 1:3 2:6.16735 3:10.695 4:136.38 5:-0.714286 6:-2 7:-5.17977 8:-449.116 9:-162.096 10:-1.21877 11:994.82 12:351.92 13:4 
-1.2622792172995833e-06 -0 0:4.66506 1:3 2:5.42113 3:17.8727 4:129.569 5:1.8 6:0 7:-5.83992 8:-165.579 9:-326.692 10:0 11:994.16 12:48.7805 13:4 
-2.6166330420239154e-06 -0.044306766107524959 0:1.87397 1:3 2:6.52612 3:13.3191 4:108.117 5:-2 6:3 7:-6.57895 8:-380.848 9:-247.807 10:-51.1696 11:993.421 12:152.778 13:7 
-0 -0.0010533363633757858 0:1.18069 1:3 2:7.4768 3:16.0175 4:91.0919 5:0.777778 6:1.83333 7:-65.3041 8:-556.331 9:-110.668 10:-65.8026 11:934.696 12:290.628 13:4 
-3.3212995016754555e-06 -0.0050134007576848223 0:1.24838 1:3 2:6.16735 3:10.695 4:136.38 5:-0.714286 6:-2 7:-5.17977 8:-449.116 9:-162.096 10:-1.21877 11:994.82 12:351.92 13:4 
